8.566224618958524772e-02
5.923172126404728510e-02
-1.184634425280945702e-01
5.923172126404728510e-02
4.831317293575747296e-02
-8.696371128436343467e-02
7.730107669721192343e-02
-8.696371128436343467e-02
4.831317293575747296e-02
4.831317293575747296e-02
-7.716049382716053118e-02
9.057571595313146373e-02
-1.234567901234567833e-01
9.057571595313136659e-02
-7.716049382716053118e-02
4.831317293575750765e-02
1.803807865240691088e-01
5.923172126404728510e-02
-8.696371128436343467e-02
1.196571676248416177e-01
-1.630362887156366070e-01
1.422222222222223609e-01
-1.630362887156364127e-01
1.196571676248414789e-01
-8.696371128436349018e-02
5.923172126404727122e-02
1.196571676248416177e-01
-2.393143352496832355e-01
1.196571676248416177e-01
9.057571595313146373e-02
-1.630362887156366070e-01
1.449211455250102865e-01
-1.630362887156366070e-01
9.057571595313146373e-02
2.339569672863452410e-01
7.730107669721192343e-02
-1.234567901234567833e-01
1.449211455250102865e-01
-1.975308641975307422e-01
1.449211455250100922e-01
-1.234567901234567833e-01
7.730107669721196506e-02
1.422222222222223609e-01
-2.844444444444447218e-01
1.422222222222223609e-01
8.566224618958524772e-02
-1.184634425280945702e-01
1.803807865240691088e-01
-2.393143352496832355e-01
2.339569672863452410e-01
-2.844444444444447218e-01
2.339569672863457406e-01
-2.393143352496829579e-01
1.803807865240693864e-01
-1.184634425280945424e-01
8.566224618958520609e-02
2.339569672863457406e-01
9.057571595313136659e-02
-1.630362887156364127e-01
1.449211455250100922e-01
-1.630362887156364127e-01
9.057571595313136659e-02
1.196571676248414789e-01
-2.393143352496829579e-01
1.196571676248414789e-01
5.923172126404728510e-02
-8.696371128436343467e-02
1.196571676248416177e-01
-1.630362887156366070e-01
1.422222222222223609e-01
-1.630362887156364127e-01
1.196571676248414789e-01
-8.696371128436349018e-02
5.923172126404727122e-02
1.803807865240693864e-01
4.831317293575747296e-02
-7.716049382716053118e-02
9.057571595313146373e-02
-1.234567901234567833e-01
9.057571595313136659e-02
-7.716049382716053118e-02
4.831317293575750765e-02
4.831317293575750765e-02
-8.696371128436349018e-02
7.730107669721196506e-02
-8.696371128436349018e-02
4.831317293575750765e-02
5.923172126404727122e-02
-1.184634425280945424e-01
5.923172126404727122e-02
8.566224618958520609e-02
