3.426489847583409909e-01
2.369268850561891404e-01
-4.738537701123782808e-01
2.369268850561891404e-01
1.932526917430298918e-01
-3.478548451374537387e-01
3.092043067888476937e-01
-3.478548451374537387e-01
1.932526917430298918e-01
1.932526917430298918e-01
-3.086419753086421247e-01
3.623028638125258549e-01
-4.938271604938271331e-01
3.623028638125254663e-01
-3.086419753086421247e-01
1.932526917430300306e-01
7.215231460962764354e-01
2.369268850561891404e-01
-3.478548451374537387e-01
4.786286704993664709e-01
-6.521451548625464278e-01
5.688888888888894435e-01
-6.521451548625456507e-01
4.786286704993659158e-01
-3.478548451374539607e-01
2.369268850561890849e-01
4.786286704993664709e-01
-9.572573409987329418e-01
4.786286704993664709e-01
3.623028638125258549e-01
-6.521451548625464278e-01
5.796845821000411458e-01
-6.521451548625464278e-01
3.623028638125258549e-01
9.358278691453809639e-01
3.092043067888476937e-01
-4.938271604938271331e-01
5.796845821000411458e-01
-7.901234567901229688e-01
5.796845821000403687e-01
-4.938271604938271331e-01
3.092043067888478602e-01
5.688888888888894435e-01
-1.137777777777778887e+00
5.688888888888894435e-01
3.426489847583409909e-01
-4.738537701123782808e-01
7.215231460962764354e-01
-9.572573409987329418e-01
9.358278691453809639e-01
-1.137777777777778887e+00
9.358278691453829623e-01
-9.572573409987318316e-01
7.215231460962775456e-01
-4.738537701123781698e-01
3.426489847583408244e-01
9.358278691453829623e-01
3.623028638125254663e-01
-6.521451548625456507e-01
5.796845821000403687e-01
-6.521451548625456507e-01
3.623028638125254663e-01
4.786286704993659158e-01
-9.572573409987318316e-01
4.786286704993659158e-01
2.369268850561891404e-01
-3.478548451374537387e-01
4.786286704993664709e-01
-6.521451548625464278e-01
5.688888888888894435e-01
-6.521451548625456507e-01
4.786286704993659158e-01
-3.478548451374539607e-01
2.369268850561890849e-01
7.215231460962775456e-01
1.932526917430298918e-01
-3.086419753086421247e-01
3.623028638125258549e-01
-4.938271604938271331e-01
3.623028638125254663e-01
-3.086419753086421247e-01
1.932526917430300306e-01
1.932526917430300306e-01
-3.478548451374539607e-01
3.092043067888478602e-01
-3.478548451374539607e-01
1.932526917430300306e-01
2.369268850561890849e-01
-4.738537701123781698e-01
2.369268850561890849e-01
3.426489847583408244e-01
